digraph Tree {
node [shape=box, style="filled, rounded", color="black", fontname="helvetica"] ;
edge [fontname="helvetica"] ;
0 [label="petal length (cm) <= 2.6\ngini = 0.65\nsamples = 97\nvalue = [35, 57, 58]\nclass = virginica", fillcolor="#fefdff"] ;
1 [label="gini = 0.0\nsamples = 26\nvalue = [35, 0, 0]\nclass = setosa", fillcolor="#e58139"] ;
0 -> 1 [labeldistance=2.5, labelangle=45, headlabel="True"] ;
2 [label="petal length (cm) <= 4.95\ngini = 0.5\nsamples = 71\nvalue = [0, 57, 58]\nclass = virginica", fillcolor="#fdfcff"] ;
0 -> 2 [labeldistance=2.5, labelangle=-45, headlabel="False"] ;
3 [label="petal length (cm) <= 4.75\ngini = 0.2\nsamples = 38\nvalue = [0, 54, 7]\nclass = versicolor", fillcolor="#53e891"] ;
2 -> 3 ;
4 [label="petal width (cm) <= 1.65\ngini = 0.04\nsamples = 30\nvalue = [0, 47, 1]\nclass = versicolor", fillcolor="#3de684"] ;
3 -> 4 ;
5 [label="gini = 0.0\nsamples = 29\nvalue = [0, 47, 0]\nclass = versicolor", fillcolor="#39e581"] ;
4 -> 5 ;
6 [label="gini = 0.0\nsamples = 1\nvalue = [0, 0, 1]\nclass = virginica", fillcolor="#8139e5"] ;
4 -> 6 ;
7 [label="petal width (cm) <= 1.65\ngini = 0.5\nsamples = 8\nvalue = [0, 7, 6]\nclass = versicolor", fillcolor="#e3fbed"] ;
3 -> 7 ;
8 [label="gini = 0.0\nsamples = 3\nvalue = [0, 5, 0]\nclass = versicolor", fillcolor="#39e581"] ;
7 -> 8 ;
9 [label="sepal length (cm) <= 5.95\ngini = 0.38\nsamples = 5\nvalue = [0, 2, 6]\nclass = virginica", fillcolor="#ab7bee"] ;
7 -> 9 ;
10 [label="gini = 0.0\nsamples = 1\nvalue = [0, 2, 0]\nclass = versicolor", fillcolor="#39e581"] ;
9 -> 10 ;
11 [label="gini = 0.0\nsamples = 4\nvalue = [0, 0, 6]\nclass = virginica", fillcolor="#8139e5"] ;
9 -> 11 ;
12 [label="sepal length (cm) <= 6.05\ngini = 0.1\nsamples = 33\nvalue = [0, 3, 51]\nclass = virginica", fillcolor="#8845e7"] ;
2 -> 12 ;
13 [label="petal width (cm) <= 1.75\ngini = 0.38\nsamples = 6\nvalue = [0, 2, 6]\nclass = virginica", fillcolor="#ab7bee"] ;
12 -> 13 ;
14 [label="petal width (cm) <= 1.55\ngini = 0.44\nsamples = 2\nvalue = [0, 2, 1]\nclass = versicolor", fillcolor="#9cf2c0"] ;
13 -> 14 ;
15 [label="gini = 0.0\nsamples = 1\nvalue = [0, 0, 1]\nclass = virginica", fillcolor="#8139e5"] ;
14 -> 15 ;
16 [label="gini = 0.0\nsamples = 1\nvalue = [0, 2, 0]\nclass = versicolor", fillcolor="#39e581"] ;
14 -> 16 ;
17 [label="gini = 0.0\nsamples = 4\nvalue = [0, 0, 5]\nclass = virginica", fillcolor="#8139e5"] ;
13 -> 17 ;
18 [label="petal length (cm) <= 5.05\ngini = 0.04\nsamples = 27\nvalue = [0, 1, 45]\nclass = virginica", fillcolor="#843de6"] ;
12 -> 18 ;
19 [label="sepal length (cm) <= 6.5\ngini = 0.38\nsamples = 2\nvalue = [0, 1, 3]\nclass = virginica", fillcolor="#ab7bee"] ;
18 -> 19 ;
20 [label="gini = 0.0\nsamples = 1\nvalue = [0, 0, 3]\nclass = virginica", fillcolor="#8139e5"] ;
19 -> 20 ;
21 [label="gini = 0.0\nsamples = 1\nvalue = [0, 1, 0]\nclass = versicolor", fillcolor="#39e581"] ;
19 -> 21 ;
22 [label="gini = 0.0\nsamples = 25\nvalue = [0, 0, 42]\nclass = virginica", fillcolor="#8139e5"] ;
18 -> 22 ;
}